1.28811
0.44
0.853567
1.03174
0.255856
0.54153
0.568843
0.228628
0.782859
-0.0305084
0.580468
0.389506
0.02988
0.0368686
0.758624
-0.119017
0.326736
0.565973
0.35363
0.369523
1.21383
0.333522
0.0105352
0.0190297
0.248337
-0.525234
-0.0766636
0.114213
0.464176
-0.960002
-0.592993
-0.246927
0.55
0.195955
0.317565
1.19851
4.98595
-0.116319
-1.74072
-0.457072
-1.17098
1.85142
1.4914
0.725503
0.930186
0.432585
0.985339
0.151282
0.076523
0.643548
-0.433902
-0.220489
-0.243354
-0.0706434
-0.0656827
0.622076
-0.924849
0.546678
1.38972
-0.140401
-0.504772
-0.697144
-0.420405
-0.688766
-0.409581
0.169434
-0.443332
0.0396754
0.05
0.764758
-0.5473
-0.0319999
-7.39921
-0.261272
3.66199
1.07329
3.98784
-1.83257
-1.6022
2.90393
-1.69396
1.90737
-1.99484
1.9363
-0.534688
-0.627859
1.56988
-0.174871
-0.665369
2.49212
0.307702
1.20837
0.490395
0.271829
1.56964
0.297646
-0.84244
1.14079
1.58274
0.910278
1.56639
-0.222456
0.653435
-1.13582
0.72
-0.716647
0.143235
-0.224549
-5.42758
2.54939
2.60189
-0.545952
2.79847
-1.56055
-1.36357
0.395208
-1.45401
-0.498399
-1.32738
-0.0950613
1.65033
0.883259
2.46925
0.436593
0.912611
0.980253
0.096246
1.1563
1.64934
0.938983
0.198521
0.714392
0.498143
1.43812
1.55528
1.33488
1.59922
1.54541
0.361285
-0.667002
0.11
0.66966
0.537567
1.43908
-3.061
1.46243
1.18625
1.75072
1.18618
0.368836
-1.56295
0.775804
-0.992187
0.164463
-0.315101
0.949232
0.922653
1.11809
-0.137679
0.723386
-0.477359
2.02833
-0.504607
0.759972
0.231313
0.865776
2.13497
0.171394
0.0730218
1.15966
0.999051
1.14919
1.32417
-0.245101
-1.58743
0.710077
0.36
0.41601
-0.0715887
1.54422
